digraph Tree {
node [shape=box, fontname="helvetica"] ;
edge [fontname="helvetica"] ;
0 [label="Average Salary <= 4461.5\nsquared_error = 14288.479\nsamples = 38\nvalue = 578.316"] ;
1 [label="Average Salary <= 3688.5\nsquared_error = 3693.0\nsamples = 26\nvalue = 516.0"] ;
0 -> 1 [labeldistance=2.5, labelangle=45, headlabel="True"] ;
2 [label="Average Salary <= 3402.5\nsquared_error = 1924.109\nsamples = 8\nvalue = 438.875"] ;
1 -> 2 ;
3 [label="Average Salary <= 3198.0\nsquared_error = 1030.222\nsamples = 3\nvalue = 389.333"] ;
2 -> 3 ;
4 [label="squared_error = 0.0\nsamples = 1\nvalue = 344.0"] ;
3 -> 4 ;
5 [label="squared_error = 4.0\nsamples = 2\nvalue = 412.0"] ;
3 -> 5 ;
6 [label="Average Salary <= 3648.0\nsquared_error = 104.24\nsamples = 5\nvalue = 468.6"] ;
2 -> 6 ;
7 [label="Average Salary <= 3509.5\nsquared_error = 24.5\nsamples = 4\nvalue = 464.0"] ;
6 -> 7 ;
8 [label="squared_error = 0.0\nsamples = 1\nvalue = 457.0"] ;
7 -> 8 ;
9 [label="Average Salary <= 3620.5\nsquared_error = 10.889\nsamples = 3\nvalue = 466.333"] ;
7 -> 9 ;
10 [label="squared_error = 0.0\nsamples = 2\nvalue = 464.0"] ;
9 -> 10 ;
11 [label="squared_error = 0.0\nsamples = 1\nvalue = 471.0"] ;
9 -> 11 ;
12 [label="squared_error = 0.0\nsamples = 1\nvalue = 487.0"] ;
6 -> 12 ;
13 [label="Average Salary <= 4197.0\nsquared_error = 660.534\nsamples = 18\nvalue = 550.278"] ;
1 -> 13 ;
14 [label="Average Salary <= 3881.0\nsquared_error = 163.877\nsamples = 9\nvalue = 528.111"] ;
13 -> 14 ;
15 [label="Average Salary <= 3773.5\nsquared_error = 56.96\nsamples = 5\nvalue = 518.2"] ;
14 -> 15 ;
16 [label="squared_error = 1.0\nsamples = 2\nvalue = 509.0"] ;
15 -> 16 ;
17 [label="Average Salary <= 3855.5\nsquared_error = 0.222\nsamples = 3\nvalue = 524.333"] ;
15 -> 17 ;
18 [label="squared_error = 0.0\nsamples = 2\nvalue = 524.0"] ;
17 -> 18 ;
19 [label="squared_error = 0.0\nsamples = 1\nvalue = 525.0"] ;
17 -> 19 ;
20 [label="Average Salary <= 3971.0\nsquared_error = 21.25\nsamples = 4\nvalue = 540.5"] ;
14 -> 20 ;
21 [label="squared_error = 0.0\nsamples = 1\nvalue = 534.0"] ;
20 -> 21 ;
22 [label="Average Salary <= 4140.0\nsquared_error = 9.556\nsamples = 3\nvalue = 542.667"] ;
20 -> 22 ;
23 [label="squared_error = 0.25\nsamples = 2\nvalue = 540.5"] ;
22 -> 23 ;
24 [label="squared_error = 0.0\nsamples = 1\nvalue = 547.0"] ;
22 -> 24 ;
25 [label="Average Salary <= 4396.0\nsquared_error = 174.469\nsamples = 9\nvalue = 572.444"] ;
13 -> 25 ;
26 [label="Average Salary <= 4298.0\nsquared_error = 64.984\nsamples = 8\nvalue = 568.625"] ;
25 -> 26 ;
27 [label="Average Salary <= 4206.5\nsquared_error = 24.188\nsamples = 4\nvalue = 561.75"] ;
26 -> 27 ;
28 [label="squared_error = 0.0\nsamples = 1\nvalue = 554.0"] ;
27 -> 28 ;
29 [label="Average Salary <= 4232.5\nsquared_error = 5.556\nsamples = 3\nvalue = 564.333"] ;
27 -> 29 ;
30 [label="squared_error = 0.0\nsamples = 1\nvalue = 561.0"] ;
29 -> 30 ;
31 [label="squared_error = 0.0\nsamples = 2\nvalue = 566.0"] ;
29 -> 31 ;
32 [label="Average Salary <= 4329.5\nsquared_error = 11.25\nsamples = 4\nvalue = 575.5"] ;
26 -> 32 ;
33 [label="squared_error = 2.25\nsamples = 2\nvalue = 572.5"] ;
32 -> 33 ;
34 [label="squared_error = 2.25\nsamples = 2\nvalue = 578.5"] ;
32 -> 34 ;
35 [label="squared_error = 0.0\nsamples = 1\nvalue = 603.0"] ;
25 -> 35 ;
36 [label="Average Salary <= 5170.5\nsquared_error = 10601.889\nsamples = 12\nvalue = 713.333"] ;
0 -> 36 [labeldistance=2.5, labelangle=-45, headlabel="False"] ;
37 [label="Average Salary <= 4992.5\nsquared_error = 1064.469\nsamples = 9\nvalue = 660.556"] ;
36 -> 37 ;
38 [label="Average Salary <= 4705.0\nsquared_error = 51.0\nsamples = 6\nvalue = 638.0"] ;
37 -> 38 ;
39 [label="Average Salary <= 4525.0\nsquared_error = 8.222\nsamples = 3\nvalue = 631.667"] ;
38 -> 39 ;
40 [label="squared_error = 0.0\nsamples = 1\nvalue = 628.0"] ;
39 -> 40 ;
41 [label="squared_error = 2.25\nsamples = 2\nvalue = 633.5"] ;
39 -> 41 ;
42 [label="Average Salary <= 4926.5\nsquared_error = 13.556\nsamples = 3\nvalue = 644.333"] ;
38 -> 42 ;
43 [label="squared_error = 4.0\nsamples = 2\nvalue = 642.0"] ;
42 -> 43 ;
44 [label="squared_error = 0.0\nsamples = 1\nvalue = 649.0"] ;
42 -> 44 ;
45 [label="Average Salary <= 5064.0\nsquared_error = 38.889\nsamples = 3\nvalue = 705.667"] ;
37 -> 45 ;
46 [label="squared_error = 0.0\nsamples = 1\nvalue = 699.0"] ;
45 -> 46 ;
47 [label="squared_error = 25.0\nsamples = 2\nvalue = 709.0"] ;
45 -> 47 ;
48 [label="Average Salary <= 5330.5\nsquared_error = 5788.222\nsamples = 3\nvalue = 871.667"] ;
36 -> 48 ;
49 [label="squared_error = 1722.25\nsamples = 2\nvalue = 823.5"] ;
48 -> 49 ;
50 [label="squared_error = 0.0\nsamples = 1\nvalue = 968.0"] ;
48 -> 50 ;
}