digraph Tree {
node [shape=box, fontname="helvetica"] ;
edge [fontname="helvetica"] ;
0 [label="Average Salary <= 4461.5\nsquared_error = 14288.479\nsamples = 38\nvalue = 578.316"] ;
1 [label="Average Salary <= 3688.5\nsquared_error = 3693.0\nsamples = 26\nvalue = 516.0"] ;
0 -> 1 [labeldistance=2.5, labelangle=45, headlabel="True"] ;
2 [label="Average Salary <= 3402.5\nsquared_error = 1924.109\nsamples = 8\nvalue = 438.875"] ;
1 -> 2 ;
3 [label="squared_error = 1030.222\nsamples = 3\nvalue = 389.333"] ;
2 -> 3 ;
4 [label="squared_error = 104.24\nsamples = 5\nvalue = 468.6"] ;
2 -> 4 ;
5 [label="Average Salary <= 4197.0\nsquared_error = 660.534\nsamples = 18\nvalue = 550.278"] ;
1 -> 5 ;
6 [label="Average Salary <= 3881.0\nsquared_error = 163.877\nsamples = 9\nvalue = 528.111"] ;
5 -> 6 ;
7 [label="squared_error = 56.96\nsamples = 5\nvalue = 518.2"] ;
6 -> 7 ;
8 [label="squared_error = 21.25\nsamples = 4\nvalue = 540.5"] ;
6 -> 8 ;
9 [label="Average Salary <= 4396.0\nsquared_error = 174.469\nsamples = 9\nvalue = 572.444"] ;
5 -> 9 ;
10 [label="Average Salary <= 4298.0\nsquared_error = 64.984\nsamples = 8\nvalue = 568.625"] ;
9 -> 10 ;
11 [label="squared_error = 24.188\nsamples = 4\nvalue = 561.75"] ;
10 -> 11 ;
12 [label="squared_error = 11.25\nsamples = 4\nvalue = 575.5"] ;
10 -> 12 ;
13 [label="squared_error = 0.0\nsamples = 1\nvalue = 603.0"] ;
9 -> 13 ;
14 [label="Average Salary <= 5170.5\nsquared_error = 10601.889\nsamples = 12\nvalue = 713.333"] ;
0 -> 14 [labeldistance=2.5, labelangle=-45, headlabel="False"] ;
15 [label="Average Salary <= 4992.5\nsquared_error = 1064.469\nsamples = 9\nvalue = 660.556"] ;
14 -> 15 ;
16 [label="Average Salary <= 4705.0\nsquared_error = 51.0\nsamples = 6\nvalue = 638.0"] ;
15 -> 16 ;
17 [label="squared_error = 8.222\nsamples = 3\nvalue = 631.667"] ;
16 -> 17 ;
18 [label="squared_error = 13.556\nsamples = 3\nvalue = 644.333"] ;
16 -> 18 ;
19 [label="squared_error = 38.889\nsamples = 3\nvalue = 705.667"] ;
15 -> 19 ;
20 [label="squared_error = 5788.222\nsamples = 3\nvalue = 871.667"] ;
14 -> 20 ;
}